{"input_size":14,"hidden_size":16,"output_size":1,"weights1":[[-8.015149773007947,-0.6554243286489061,-5.29164891755775,0.1555403466549984,1.5854498571077122,0.0679436607616273,-0.5494869346651766,-4.028471543931735,0.6630931483322166,1.5434316135373978,7.795041869952142,-0.35746154896077975,0.550129158322133,-0.03365215247479546,-6.6985052868091435,-5.936719033082997],[-5.680430998476805,-0.8072782482233474,-2.610621677846126,1.2025620278344409,-0.0749311417991616,0.05227201953171062,-0.7254844071209415,-2.6814454264104812,0.25648836083779314,-1.4243720610343926,2.7974102293845866,1.1234778064411912,-0.5787279964257409,0.6741149112631937,-3.524048978379159,-3.6060806008861883],[5.422495372256524,-0.4489432369225543,3.82832524339109,-0.2985820932564258,-1.11063345757838,0.054070514153957944,0.21551043946327952,3.377870364207846,0.9506756361415112,0.041341317226268104,-3.6332999282023675,0.8702525807319738,-0.7097420645663788,0.5655822654671498,3.7934805555231805,2.8657671523375203],[-7.844590101267949,0.500214137641257,-3.4948165036958754,0.9455597331038672,-0.07099600002698134,0.7462193891238127,0.45806742550814317,-3.55980474660987,0.6152681614926944,-1.5513882816785505,2.7582286885479417,-0.25839134158486543,0.6157560040011903,1.0714900713309519,-5.255043276396629,-4.981174817359187],[-2.0600732485651534,-0.21322778034273965,-2.0833517360385074,0.07928245807698313,-0.056994272354341735,0.7294255266837167,0.6014963879530941,-0.907613134625791,-0.5876857234030524,-0.0796521354677587,-2.408629570688194,0.17128917353193251,0.18142258675435305,-0.7385769049539149,-0.8389225772935478,-2.2093014659831147],[-1.2291754062566183,-0.26999304799835244,0.8481199193979587,0.7347310154270779,0.6962700739467707,-0.2620794965540686,-0.4005559142308696,-0.16254993329703227,0.7141025019380404,1.7152166145112517,-0.21168551997819035,-0.19540648989213857,0.3154535165003907,-0.2291568303165952,-0.8110765672292658,0.11950371462466014],[-0.5977714347023535,0.8871692383613309,-0.8057909706964872,0.30402951188989175,-0.660458813937912,0.869001786210772,0.5355062601497211,-0.33388695394645973,0.3836675912075218,2.268038984787348,-2.0064889880182157,0.2019210199743438,-0.349862781543812,-0.9585565155125363,-0.6427818200440866,-1.2820121043005708],[-3.267735378617651,-0.32767914600324205,-2.1226022607377693,-0.07856835559899876,0.8846717222715276,-0.6762331917392475,-0.32804766353607046,-2.301380519411074,-0.27363310008120834,-1.825551517323039,0.463838664739549,0.5433330589437528,1.2068344937633908,-0.12453515696381481,-1.2455302755900572,-1.3297260645908935],[1.900318525731801,0.10036639450831307,2.607813988627519,0.4803647189224362,-0.21130306619686806,0.24885442159749463,-0.17327023181907494,1.9427884961039876,0.7274194104962994,1.1520370663486408,-6.663566186031889,0.6934961856955714,0.5636861006622782,0.10841240985276311,2.0470865232296056,0.9815799168646836],[-4.775644515760808,0.38620203802980535,-2.027891854560389,0.8055979412154094,0.3893950761708497,0.30489718288531104,-0.36299836545499814,-1.8058772365678557,-0.6714778905280899,-2.4765971100747426,1.831010906032503,0.5189302067604086,-0.1995701222022744,0.3669875407511808,-3.640319681528548,-3.5749003994469852],[-2.439222404362066,1.6174551507135593,-0.21614009404406478,-0.8565362422366275,0.25912344733883796,-0.7914683024248533,-0.19732848211818171,-0.22656435262860364,0.1477610659224028,1.3107341179621312,-2.1810138101871472,0.48326049374477836,1.4125607598893035,1.0647635825103388,-1.2928819437021482,-0.5769933952366064],[-0.5825337662696694,0.6070156578548132,-0.20602270630755634,0.26399785096860895,0.16486032581560273,-0.32587998446195743,0.6112650141474419,-0.48628646015233845,-0.24639746475257857,1.0470737656573204,-3.472750556904149,0.84156673663699,0.6048174190511785,0.24056076135491605,-0.01999375098720666,-0.4979591838798542],[-1.2388571120952574,-0.3637306741198765,0.15596530766304245,-0.9225297601913504,0.5782450928679048,0.5917278781323564,0.8795092902206038,-0.3486945086095803,0.04572059812174971,0.13177548285510848,-2.006004493606411,1.013210454944451,-0.6854125623995626,0.4916885449244725,0.09669553147044838,0.621975468055356],[-2.8484393527764094,0.3176062716305048,-1.9283729706549553,0.9193116112780239,0.441390750585587,-0.48489496537480825,0.29221827851734195,-1.3231095984212857,-0.3593220812414272,0.7531419876518995,1.9369723525141,-0.01673765600616726,0.012508297017757422,0.8636060746092733,-3.107405913886077,-2.4010740581935157]],"weights2":[[1.808800382545123],[-0.5257027835155216],[1.5060421720951005],[3.635993105434562],[4.307655919272916],[0.5315382274422641],[-0.8493250362742067],[1.3566006939922677],[-2.5994500058817143],[2.151326392015289],[-1.5113918571147873],[1.7975267002832813],[3.521559355087056],[1.6937271146148987],[1.5758798664592188],[1.3431574298534215]],"bias1":[3.7332562510307934,-1.338385497493809,0.42806242264462613,-0.4128590098319833,-0.5069734140468661,-0.12197064420728884,0.40325697195101684,1.0586191734563342,1.4910019608433287,-0.5313180136573797,-1.9071348214954478,-0.47610086319600453,-0.49058874145642284,-0.20454701687577095,2.209994963115571,2.303132562673284],"bias2":[-1.5892667990817895]}